svm_type epsilon_svr
kernel_type rbf
gamma 0.050000000000000003
nr_class 2
total_sv 326
rho -56.499629362635581
probA 1.8489883918744432
SV
841.66359257515853 1:0.925345 2:0.99655 3:0.99324 4:0.992643 5:-0.183786 6:0.934321 7:0.972392 8:0.975941 9:0.978968 
-1024 1:0.925345 2:0.99655 3:0.99324 4:0.992643 5:-0.183786 6:0.163572 7:0.525974 8:0.665912 9:0.750041 
-1024 1:0.925345 2:0.99655 3:0.99324 4:0.992643 5:-0.183786 6:-0.858718 7:-0.776756 8:-0.694773 9:-0.576614 
1024 1:-0.168214 2:0.543442 3:0.676781 4:0.755452 5:-0.190933 6:0.934321 7:0.972392 8:0.975941 9:0.978968 
1024 1:-0.168214 2:0.543442 3:0.676781 4:0.755452 5:-0.190933 6:0.163572 7:0.525974 8:0.665912 9:0.750041 
105.39581054193208 1:-0.168214 2:0.543442 3:0.676781 4:0.755452 5:-0.190933 6:-0.858718 7:-0.776756 8:-0.694773 9:-0.576614 
-1024 1:-0.540606 2:0.0800603 3:0.252222 4:0.388375 5:-0.227998 6:0.934321 7:0.972392 8:0.975941 9:0.978968 
-1024 1:-0.540606 2:0.0800603 3:0.252222 4:0.388375 5:-0.227998 6:0.163572 7:0.525974 8:0.665912 9:0.750041 
-1024 1:-0.540606 2:0.0800603 3:0.252222 4:0.388375 5:-0.227998 6:-0.858718 7:-0.776756 8:-0.694773 9:-0.576614 
1024 1:-0.811615 2:-0.50576 3:-0.400795 4:-0.289245 5:-0.296162 6:0.934321 7:0.972392 8:0.975941 9:0.978968 
-1024 1:-0.811615 2:-0.50576 3:-0.400795 4:-0.289245 5:-0.296162 6:0.163572 7:0.525974 8:0.665912 9:0.750041 
1024 1:-0.811615 2:-0.50576 3:-0.400795 4:-0.289245 5:-0.296162 6:-0.858718 7:-0.776756 8:-0.694773 9:-0.576614 
1024 1:-0.148564 2:0.964178 3:0.975774 4:0.981215 5:-0.197439 6:0.934321 7:0.972392 8:0.975941 9:0.978968 
-387.80757691571205 1:-0.148564 2:0.964178 3:0.975774 4:0.981215 5:-0.197439 6:0.163572 7:0.525974 8:0.665912 9:0.750041 
-1024 1:-0.148564 2:0.964178 3:0.975774 4:0.981215 5:-0.197439 6:-0.858718 7:-0.776756 8:-0.694773 9:-0.576614 
-1024 1:-0.468012 2:0.334133 3:0.502137 4:0.616049 5:-0.218756 6:0.934321 7:0.972392 8:0.975941 9:0.978968 
-419.2390771093917 1:-0.468012 2:0.334133 3:0.502137 4:0.616049 5:-0.218756 6:0.163572 7:0.525974 8:0.665912 9:0.750041 
-1024 1:-0.468012 2:0.334133 3:0.502137 4:0.616049 5:-0.218756 6:-0.858718 7:-0.776756 8:-0.694773 9:-0.576614 
1024 1:-0.672845 2:-0.165594 3:-0.00674797 4:0.134978 5:-0.252738 6:0.934321 7:0.972392 8:0.975941 9:0.978968 
-1024 1:-0.672845 2:-0.165594 3:-0.00674797 4:0.134978 5:-0.252738 6:0.163572 7:0.525974 8:0.665912 9:0.750041 
1024 1:-0.672845 2:-0.165594 3:-0.00674797 4:0.134978 5:-0.252738 6:-0.858718 7:-0.776756 8:-0.694773 9:-0.576614 
1024 1:-0.878477 2:-0.678406 3:-0.615811 4:-0.544318 5:-0.335758 6:0.934321 7:0.972392 8:0.975941 9:0.978968 
1024 1:-0.878477 2:-0.678406 3:-0.615811 4:-0.544318 5:-0.335758 6:0.163572 7:0.525974 8:0.665912 9:0.750041 
1024 1:-0.878477 2:-0.678406 3:-0.615811 4:-0.544318 5:-0.335758 6:-0.858718 7:-0.776756 8:-0.694773 9:-0.576614 
-596.39345402979029 1:0.739689 2:0.978234 3:0.989943 4:0.994717 5:-0.336899 6:0.705093 7:0.88568 8:0.896608 9:0.904956 
1024 1:0.739689 2:0.978234 3:0.989943 4:0.994717 5:-0.336899 6:-0.6054 7:0.231763 8:0.5587 9:0.772538 
-1024 1:0.739689 2:0.978234 3:0.989943 4:0.994717 5:-0.336899 6:-0.995203 7:-0.976407 8:-0.95599 9:-0.919824 
1024 1:-0.0263334 2:0.406073 3:0.576225 4:0.691717 5:-0.386052 6:0.705093 7:0.88568 8:0.896608 9:0.904956 
1024 1:-0.0263334 2:0.406073 3:0.576225 4:0.691717 5:-0.386052 6:-0.6054 7:0.231763 8:0.5587 9:0.772538 
1024 1:-0.0263334 2:0.406073 3:0.576225 4:0.691717 5:-0.386052 6:-0.995203 7:-0.976407 8:-0.95599 9:-0.919824 
1024 1:-0.360201 2:-0.0485083 3:0.126115 4:0.274108 5:-0.411118 6:0.705093 7:0.88568 8:0.896608 9:0.904956 
1024 1:-0.360201 2:-0.0485083 3:0.126115 4:0.274108 5:-0.411118 6:-0.6054 7:0.231763 8:0.5587 9:0.772538 
-1024 1:-0.640675 2:-0.488459 3:-0.37661 4:-0.259509 5:-0.429463 6:0.705093 7:0.88568 8:0.896608 9:0.904956 
-1024 1:-0.640675 2:-0.488459 3:-0.37661 4:-0.259509 5:-0.429463 6:-0.6054 7:0.231763 8:0.5587 9:0.772538 
1024 1:-0.640675 2:-0.488459 3:-0.37661 4:-0.259509 5:-0.429463 6:-0.995203 7:-0.976407 8:-0.95599 9:-0.919824 
-1024 1:0.425666 2:0.930978 3:0.965955 4:0.980603 5:-0.37011 6:0.705093 7:0.88568 8:0.896608 9:0.904956 
-106.16283829055689 1:0.425666 2:0.930978 3:0.965955 4:0.980603 5:-0.37011 6:-0.6054 7:0.231763 8:0.5587 9:0.772538 
1024 1:0.425666 2:0.930978 3:0.965955 4:0.980603 5:-0.37011 6:-0.995203 7:-0.976407 8:-0.95599 9:-0.919824 
1024 1:-0.190742 2:0.214172 3:0.397208 4:0.535734 5:-0.40109 6:0.705093 7:0.88568 8:0.896608 9:0.904956 
-1024 1:-0.190742 2:0.214172 3:0.397208 4:0.535734 5:-0.40109 6:-0.6054 7:0.231763 8:0.5587 9:0.772538 
-1024 1:-0.190742 2:0.214172 3:0.397208 4:0.535734 5:-0.40109 6:-0.995203 7:-0.976407 8:-0.95599 9:-0.919824 
1024 1:-0.480123 2:-0.230859 3:-0.0800464 4:0.059209 5:-0.436708 6:0.705093 7:0.88568 8:0.896608 9:0.904956 
-1024 1:-0.480123 2:-0.230859 3:-0.0800464 4:0.059209 5:-0.436708 6:-0.6054 7:0.231763 8:0.5587 9:0.772538 
-1024 1:-0.480123 2:-0.230859 3:-0.0800464 4:0.059209 5:-0.436708 6:-0.995203 7:-0.976407 8:-0.95599 9:-0.919824 
-1024 1:-0.709379 2:-0.618145 3:-0.549137 4:-0.473411 5:-0.465384 6:0.705093 7:0.88568 8:0.896608 9:0.904956 
1024 1:-0.709379 2:-0.618145 3:-0.549137 4:-0.473411 5:-0.465384 6:-0.6054 7:0.231763 8:0.5587 9:0.772538 
-1024 1:-0.709379 2:-0.618145 3:-0.549137 4:-0.473411 5:-0.465384 6:-0.995203 7:-0.976407 8:-0.95599 9:-0.919824 
-794.27155968682712 1:0.955099 2:0.99932 3:1 4:1 5:-0.67593 6:0.975685 7:0.987346 8:0.991567 9:0.992562 
-1024 1:0.955099 2:0.99932 3:1 4:1 5:-0.67593 6:0.184629 7:0.781187 8:0.913526 9:0.931999 
940.24204153568007 1:0.955099 2:0.99932 3:1 4:1 5:-0.67593 6:-0.381344 7:-0.0135709 8:0.131083 9:0.213253 
-1024 1:0.077362 2:0.521855 3:0.687157 4:0.784027 5:-0.711165 6:0.975685 7:0.987346 8:0.991567 9:0.992562 
-1024 1:0.077362 2:0.521855 3:0.687157 4:0.784027 5:-0.711165 6:0.184629 7:0.781187 8:0.913526 9:0.931999 
-1024 1:0.077362 2:0.521855 3:0.687157 4:0.784027 5:-0.711165 6:-0.381344 7:-0.0135709 8:0.131083 9:0.213253 
-1024 1:-0.337024 2:0.0181764 3:0.22713 4:0.389891 5:-0.739347 6:0.975685 7:0.987346 8:0.991567 9:0.992562 
-1024 1:-0.337024 2:0.0181764 3:0.22713 4:0.389891 5:-0.739347 6:0.184629 7:0.781187 8:0.913526 9:0.931999 
-1024 1:-0.337024 2:0.0181764 3:0.22713 4:0.389891 5:-0.739347 6:-0.381344 7:-0.0135709 8:0.131083 9:0.213253 
-347.20039904828144 1:-0.702695 2:-0.555735 3:-0.430707 4:-0.301846 5:-0.786033 6:0.975685 7:0.987346 8:0.991567 9:0.992562 
-326.25622648598096 1:-0.702695 2:-0.555735 3:-0.430707 4:-0.301846 5:-0.786033 6:0.184629 7:0.781187 8:0.913526 9:0.931999 
1024 1:-0.702695 2:-0.555735 3:-0.430707 4:-0.301846 5:-0.786033 6:-0.381344 7:-0.0135709 8:0.131083 9:0.213253 
1024 1:0.583214 2:0.972325 3:0.987809 4:0.993187 5:-0.699494 6:0.975685 7:0.987346 8:0.991567 9:0.992562 
1024 1:0.583214 2:0.972325 3:0.987809 4:0.993187 5:-0.699494 6:0.184629 7:0.781187 8:0.913526 9:0.931999 
-1024 1:0.583214 2:0.972325 3:0.987809 4:0.993187 5:-0.699494 6:-0.381344 7:-0.0135709 8:0.131083 9:0.213253 
-1024 1:-0.156073 2:0.306337 3:0.51141 4:0.648542 5:-0.731462 6:0.975685 7:0.987346 8:0.991567 9:0.992562 
-1024 1:-0.156073 2:0.306337 3:0.51141 4:0.648542 5:-0.731462 6:0.184629 7:0.781187 8:0.913526 9:0.931999 
-1024 1:-0.156073 2:0.306337 3:0.51141 4:0.648542 5:-0.731462 6:-0.381344 7:-0.0135709 8:0.131083 9:0.213253 
-1024 1:-0.501424 2:-0.213008 3:-0.0211117 4:0.148193 5:-0.765627 6:0.975685 7:0.987346 8:0.991567 9:0.992562 
-1024 1:-0.501424 2:-0.213008 3:-0.0211117 4:0.148193 5:-0.765627 6:0.184629 7:0.781187 8:0.913526 9:0.931999 
-1024 1:-0.501424 2:-0.213008 3:-0.0211117 4:0.148193 5:-0.765627 6:-0.381344 7:-0.0135709 8:0.131083 9:0.213253 
1024 1:-0.793761 2:-0.722004 3:-0.649927 4:-0.573047 5:-0.818125 6:0.975685 7:0.987346 8:0.991567 9:0.992562 
1024 1:-0.793761 2:-0.722004 3:-0.649927 4:-0.573047 5:-0.818125 6:0.184629 7:0.781187 8:0.913526 9:0.931999 
-284.62703675849559 1:-0.793761 2:-0.722004 3:-0.649927 4:-0.573047 5:-0.818125 6:-0.381344 7:-0.0135709 8:0.131083 9:0.213253 
1024 1:0.65052 2:0.988364 3:0.994312 4:0.996299 5:1 6:0.67037 7:0.863033 8:0.89061 9:0.901705 
1024 1:0.65052 2:0.988364 3:0.994312 4:0.996299 5:1 6:-0.518797 7:0.301048 8:0.650033 9:0.796995 
-614.83423334088525 1:0.65052 2:0.988364 3:0.994312 4:0.996299 5:1 6:-0.984649 7:-0.945641 8:-0.91318 9:-0.877306 
1024 1:-0.41624 2:0.148933 3:0.38266 4:0.55002 5:0.848703 6:0.67037 7:0.863033 8:0.89061 9:0.901705 
-1024 1:-0.41624 2:0.148933 3:0.38266 4:0.55002 5:0.848703 6:-0.518797 7:0.301048 8:0.650033 9:0.796995 
-973.61850716696119 1:-0.715742 2:-0.421712 3:-0.230758 4:-0.0456809 5:0.697256 6:0.67037 7:0.863033 8:0.89061 9:0.901705 
1024 1:-0.715742 2:-0.421712 3:-0.230758 4:-0.0456809 5:0.697256 6:-0.984649 7:-0.945641 8:-0.91318 9:-0.877306 
-1024 1:-0.871198 2:-0.780976 3:-0.69082 4:-0.575629 5:0.472869 6:0.67037 7:0.863033 8:0.89061 9:0.901705 
-1024 1:-0.871198 2:-0.780976 3:-0.69082 4:-0.575629 5:0.472869 6:-0.518797 7:0.301048 8:0.650033 9:0.796995 
-1024 1:-0.871198 2:-0.780976 3:-0.69082 4:-0.575629 5:0.472869 6:-0.984649 7:-0.945641 8:-0.91318 9:-0.877306 
959.18078345386357 1:0.20114 2:0.9263 3:0.96453 4:0.979309 5:0.933164 6:0.67037 7:0.863033 8:0.89061 9:0.901705 
-1024 1:0.20114 2:0.9263 3:0.96453 4:0.979309 5:0.933164 6:-0.518797 7:0.301048 8:0.650033 9:0.796995 
696.79206825440383 1:0.20114 2:0.9263 3:0.96453 4:0.979309 5:0.933164 6:-0.984649 7:-0.945641 8:-0.91318 9:-0.877306 
-1024 1:-0.579361 2:-0.137297 3:0.0909612 4:0.282408 5:0.762481 6:0.67037 7:0.863033 8:0.89061 9:0.901705 
537.06852899099692 1:-0.579361 2:-0.137297 3:0.0909612 4:0.282408 5:0.762481 6:-0.518797 7:0.301048 8:0.650033 9:0.796995 
931.16395710446773 1:-0.579361 2:-0.137297 3:0.0909612 4:0.282408 5:0.762481 6:-0.984649 7:-0.945641 8:-0.91318 9:-0.877306 
-1024 1:-0.817727 2:-0.652554 3:-0.52718 4:-0.386736 5:0.559878 6:0.67037 7:0.863033 8:0.89061 9:0.901705 
-1024 1:-0.817727 2:-0.652554 3:-0.52718 4:-0.386736 5:0.559878 6:-0.518797 7:0.301048 8:0.650033 9:0.796995 
-1024 1:-0.817727 2:-0.652554 3:-0.52718 4:-0.386736 5:0.559878 6:-0.984649 7:-0.945641 8:-0.91318 9:-0.877306 
1024 1:-0.92728 2:-0.92099 3:-0.902325 4:-0.866461 5:0.297234 6:0.67037 7:0.863033 8:0.89061 9:0.901705 
-531.04338957151674 1:-0.92728 2:-0.92099 3:-0.902325 4:-0.866461 5:0.297234 6:-0.518797 7:0.301048 8:0.650033 9:0.796995 
1024 1:-0.92728 2:-0.92099 3:-0.902325 4:-0.866461 5:0.297234 6:-0.984649 7:-0.945641 8:-0.91318 9:-0.877306 
1024 1:0.036515 2:0.906625 3:0.9595 4:0.977997 5:-0.514831 6:0.838295 7:0.918874 8:0.932456 9:0.939732 
-1024 1:0.036515 2:0.906625 3:0.9595 4:0.977997 5:-0.514831 6:-0.00715412 7:0.491547 8:0.68286 9:0.774084 
-1024 1:0.036515 2:0.906625 3:0.9595 4:0.977997 5:-0.514831 6:-0.971689 7:-0.947072 8:-0.926039 9:-0.901403 
873.78542424156115 1:-0.609735 2:0.300114 3:0.531543 4:0.658218 5:-0.622053 6:0.838295 7:0.918874 8:0.932456 9:0.939732 
539.44607567293656 1:-0.609735 2:0.300114 3:0.531543 4:0.658218 5:-0.622053 6:-0.00715412 7:0.491547 8:0.68286 9:0.774084 
-1024 1:-0.609735 2:0.300114 3:0.531543 4:0.658218 5:-0.622053 6:-0.971689 7:-0.947072 8:-0.926039 9:-0.901403 
1024 1:-0.783494 2:-0.185919 3:0.0421177 4:0.200959 5:-0.653462 6:0.838295 7:0.918874 8:0.932456 9:0.939732 
-1024 1:-0.783494 2:-0.185919 3:0.0421177 4:0.200959 5:-0.653462 6:-0.00715412 7:0.491547 8:0.68286 9:0.774084 
850.54309745859894 1:-0.783494 2:-0.185919 3:0.0421177 4:0.200959 5:-0.653462 6:-0.971689 7:-0.947072 8:-0.926039 9:-0.901403 
-1024 1:-0.924445 2:-0.667731 3:-0.559474 4:-0.470193 5:-0.715236 6:0.838295 7:0.918874 8:0.932456 9:0.939732 
-1024 1:-0.924445 2:-0.667731 3:-0.559474 4:-0.470193 5:-0.715236 6:-0.00715412 7:0.491547 8:0.68286 9:0.774084 
-1024 1:-0.924445 2:-0.667731 3:-0.559474 4:-0.470193 5:-0.715236 6:-0.971689 7:-0.947072 8:-0.926039 9:-0.901403 
1024 1:-0.318221 2:0.823116 3:0.918761 4:0.954297 5:-0.579239 6:0.838295 7:0.918874 8:0.932456 9:0.939732 
1024 1:-0.318221 2:0.823116 3:0.918761 4:0.954297 5:-0.579239 6:-0.00715412 7:0.491547 8:0.68286 9:0.774084 
1024 1:-0.318221 2:0.823116 3:0.918761 4:0.954297 5:-0.579239 6:-0.971689 7:-0.947072 8:-0.926039 9:-0.901403 
1024 1:-0.6861 2:0.108707 3:0.353542 4:0.502453 5:-0.634198 6:0.838295 7:0.918874 8:0.932456 9:0.939732 
1024 1:-0.6861 2:0.108707 3:0.353542 4:0.502453 5:-0.634198 6:-0.00715412 7:0.491547 8:0.68286 9:0.774084 
-1024 1:-0.6861 2:0.108707 3:0.353542 4:0.502453 5:-0.634198 6:-0.971689 7:-0.947072 8:-0.926039 9:-0.901403 
-1024 1:-0.837337 2:-0.366454 3:-0.172846 4:-0.0239585 5:-0.671283 6:0.838295 7:0.918874 8:0.932456 9:0.939732 
-1024 1:-0.837337 2:-0.366454 3:-0.172846 4:-0.0239585 5:-0.671283 6:-0.00715412 7:0.491547 8:0.68286 9:0.774084 
-1024 1:-0.837337 2:-0.366454 3:-0.172846 4:-0.0239585 5:-0.671283 6:-0.971689 7:-0.947072 8:-0.926039 9:-0.901403 
-1024 1:-0.952625 2:-0.771607 3:-0.712817 4:-0.671699 5:-0.732102 6:0.838295 7:0.918874 8:0.932456 9:0.939732 
1024 1:-0.952625 2:-0.771607 3:-0.712817 4:-0.671699 5:-0.732102 6:-0.971689 7:-0.947072 8:-0.926039 9:-0.901403 
1024 1:0.489417 2:0.894108 3:0.946778 4:0.96866 5:0.0899836 6:0.841428 7:0.932073 8:0.94456 9:0.950589 
1024 1:0.489417 2:0.894108 3:0.946778 4:0.96866 5:0.0899836 6:-0.0302132 7:0.465933 8:0.630845 9:0.704277 
-1024 1:0.489417 2:0.894108 3:0.946778 4:0.96866 5:0.0899836 6:-0.927039 7:-0.859102 8:-0.803022 9:-0.728721 
-1024 1:-0.187409 2:0.189444 3:0.35825 4:0.474108 5:0.0534231 6:0.841428 7:0.932073 8:0.94456 9:0.950589 
-1024 1:-0.187409 2:0.189444 3:0.35825 4:0.474108 5:0.0534231 6:-0.927039 7:-0.859102 8:-0.803022 9:-0.728721 
1024 1:-0.43616 2:-0.203912 3:-0.0932007 4:-0.0294594 5:0.019412 6:0.841428 7:0.932073 8:0.94456 9:0.950589 
1024 1:-0.43616 2:-0.203912 3:-0.0932007 4:-0.0294594 5:0.019412 6:-0.0302132 7:0.465933 8:0.630845 9:0.704277 
1024 1:-0.43616 2:-0.203912 3:-0.0932007 4:-0.0294594 5:0.019412 6:-0.927039 7:-0.859102 8:-0.803022 9:-0.728721 
-1024 1:-0.633468 2:-0.516316 3:-0.471697 4:-0.476118 5:-0.000419154 6:0.841428 7:0.932073 8:0.94456 9:0.950589 
1024 1:-0.633468 2:-0.516316 3:-0.471697 4:-0.476118 5:-0.000419154 6:-0.0302132 7:0.465933 8:0.630845 9:0.704277 
-711.97635885415491 1:-0.633468 2:-0.516316 3:-0.471697 4:-0.476118 5:-0.000419154 6:-0.927039 7:-0.859102 8:-0.803022 9:-0.728721 
-1024 1:0.299031 2:0.795581 3:0.891919 4:0.935697 5:0.0819238 6:0.841428 7:0.932073 8:0.94456 9:0.950589 
-1024 1:0.299031 2:0.795581 3:0.891919 4:0.935697 5:0.0819238 6:-0.0302132 7:0.465933 8:0.630845 9:0.704277 
-1024 1:0.299031 2:0.795581 3:0.891919 4:0.935697 5:0.0819238 6:-0.927039 7:-0.859102 8:-0.803022 9:-0.728721 
-380.86277715349843 1:-0.269718 2:0.0476166 3:0.189592 4:0.286674 5:0.0467739 6:0.841428 7:0.932073 8:0.94456 9:0.950589 
1024 1:-0.269718 2:0.0476166 3:0.189592 4:0.286674 5:0.0467739 6:-0.0302132 7:0.465933 8:0.630845 9:0.704277 
-1024 1:-0.269718 2:0.0476166 3:0.189592 4:0.286674 5:0.0467739 6:-0.927039 7:-0.859102 8:-0.803022 9:-0.728721 
1024 1:-0.486847 2:-0.30182 3:-0.228025 4:-0.201645 5:0.00623141 6:0.841428 7:0.932073 8:0.94456 9:0.950589 
215.36356517699275 1:-0.486847 2:-0.30182 3:-0.228025 4:-0.201645 5:0.00623141 6:-0.0302132 7:0.465933 8:0.630845 9:0.704277 
1024 1:-0.486847 2:-0.30182 3:-0.228025 4:-0.201645 5:0.00623141 6:-0.927039 7:-0.859102 8:-0.803022 9:-0.728721 
-1024 1:-0.647656 2:-0.562373 3:-0.551886 4:-0.593011 5:-0.0270539 6:0.841428 7:0.932073 8:0.94456 9:0.950589 
1024 1:-0.647656 2:-0.562373 3:-0.551886 4:-0.593011 5:-0.0270539 6:-0.0302132 7:0.465933 8:0.630845 9:0.704277 
-1024 1:-0.647656 2:-0.562373 3:-0.551886 4:-0.593011 5:-0.0270539 6:-0.927039 7:-0.859102 8:-0.803022 9:-0.728721 
-1024 1:0.484177 2:0.951031 3:0.967674 4:0.977114 5:-0.184695 6:0.856025 7:0.93094 8:0.945186 9:0.951022 
1024 1:0.484177 2:0.951031 3:0.967674 4:0.977114 5:-0.184695 6:-0.157607 7:0.463068 8:0.691698 9:0.782626 
1024 1:0.484177 2:0.951031 3:0.967674 4:0.977114 5:-0.184695 6:-0.808395 7:-0.618234 8:-0.50713 9:-0.428112 
1024 1:-0.66195 2:-0.0878807 3:0.156976 4:0.34682 5:-0.367055 6:0.856025 7:0.93094 8:0.945186 9:0.951022 
1024 1:-0.66195 2:-0.0878807 3:0.156976 4:0.34682 5:-0.367055 6:-0.157607 7:0.463068 8:0.691698 9:0.782626 
1024 1:-0.66195 2:-0.0878807 3:0.156976 4:0.34682 5:-0.367055 6:-0.808395 7:-0.618234 8:-0.50713 9:-0.428112 
1024 1:-0.871086 2:-0.600174 3:-0.438475 4:-0.286515 5:-0.519678 6:0.856025 7:0.93094 8:0.945186 9:0.951022 
1024 1:-0.871086 2:-0.600174 3:-0.438475 4:-0.286515 5:-0.519678 6:-0.157607 7:0.463068 8:0.691698 9:0.782626 
1024 1:-0.871086 2:-0.600174 3:-0.438475 4:-0.286515 5:-0.519678 6:-0.808395 7:-0.618234 8:-0.50713 9:-0.428112 
-1024 1:-0.976889 2:-0.925728 3:-0.882521 4:-0.82875 5:-0.688923 6:0.856025 7:0.93094 8:0.945186 9:0.951022 
123.5649973983077 1:-0.976889 2:-0.925728 3:-0.882521 4:-0.82875 5:-0.688923 6:-0.157607 7:0.463068 8:0.691698 9:0.782626 
1024 1:-0.976889 2:-0.925728 3:-0.882521 4:-0.82875 5:-0.688923 6:-0.808395 7:-0.618234 8:-0.50713 9:-0.428112 
-1024 1:-0.0366647 2:0.867695 3:0.923612 4:0.94983 5:-0.261308 6:0.856025 7:0.93094 8:0.945186 9:0.951022 
-197.71148695520003 1:-0.0366647 2:0.867695 3:0.923612 4:0.94983 5:-0.261308 6:-0.157607 7:0.463068 8:0.691698 9:0.782626 
1024 1:-0.0366647 2:0.867695 3:0.923612 4:0.94983 5:-0.261308 6:-0.808395 7:-0.618234 8:-0.50713 9:-0.428112 
1024 1:-0.779191 2:-0.334986 3:-0.113944 4:0.0774082 5:-0.444252 6:0.856025 7:0.93094 8:0.945186 9:0.951022 
1024 1:-0.779191 2:-0.334986 3:-0.113944 4:0.0774082 5:-0.444252 6:-0.157607 7:0.463068 8:0.691698 9:0.782626 
-907.70880507174263 1:-0.779191 2:-0.334986 3:-0.113944 4:0.0774082 5:-0.444252 6:-0.808395 7:-0.618234 8:-0.50713 9:-0.428112 
1024 1:-0.923942 2:-0.753805 3:-0.640199 4:-0.526638 5:-0.617116 6:0.856025 7:0.93094 8:0.945186 9:0.951022 
-1024 1:-0.923942 2:-0.753805 3:-0.640199 4:-0.526638 5:-0.617116 6:-0.157607 7:0.463068 8:0.691698 9:0.782626 
-1024 1:-0.923942 2:-0.753805 3:-0.640199 4:-0.526638 5:-0.617116 6:-0.808395 7:-0.618234 8:-0.50713 9:-0.428112 
-906.66743895201716 1:-1 2:-1 3:-1 4:-1 5:-0.759679 6:0.856025 7:0.93094 8:0.945186 9:0.951022 
1024 1:-1 2:-1 3:-1 4:-1 5:-0.759679 6:-0.157607 7:0.463068 8:0.691698 9:0.782626 
-1024 1:-1 2:-1 3:-1 4:-1 5:-0.759679 6:-0.808395 7:-0.618234 8:-0.50713 9:-0.428112 
1024 1:0.709881 2:0.996149 3:0.997945 4:0.997606 5:0.349732 6:0.899746 7:0.953218 8:0.957833 9:0.955085 
1024 1:0.709881 2:0.996149 3:0.997945 4:0.997606 5:0.349732 6:-0.0231707 7:0.573005 8:0.745548 9:0.818801 
1024 1:0.709881 2:0.996149 3:0.997945 4:0.997606 5:0.349732 6:-0.993941 7:-0.986499 8:-0.97937 9:-0.96724 
-1024 1:-0.366914 2:0.158081 3:0.364853 4:0.509589 5:0.150045 6:0.899746 7:0.953218 8:0.957833 9:0.955085 
1024 1:-0.366914 2:0.158081 3:0.364853 4:0.509589 5:0.150045 6:-0.0231707 7:0.573005 8:0.745548 9:0.818801 
-1024 1:-0.366914 2:0.158081 3:0.364853 4:0.509589 5:0.150045 6:-0.993941 7:-0.986499 8:-0.97937 9:-0.96724 
-1024 1:-0.626664 2:-0.328397 3:-0.172979 4:-0.0382581 5:-0.110888 6:0.899746 7:0.953218 8:0.957833 9:0.955085 
1024 1:-0.626664 2:-0.328397 3:-0.172979 4:-0.0382581 5:-0.110888 6:-0.0231707 7:0.573005 8:0.745548 9:0.818801 
1024 1:-0.626664 2:-0.328397 3:-0.172979 4:-0.0382581 5:-0.110888 6:-0.993941 7:-0.986499 8:-0.97937 9:-0.96724 
-1024 1:-0.754763 2:-0.599424 3:-0.511771 4:-0.430115 5:-0.24854 6:0.899746 7:0.953218 8:0.957833 9:0.955085 
-1024 1:-0.754763 2:-0.599424 3:-0.511771 4:-0.430115 5:-0.24854 6:-0.0231707 7:0.573005 8:0.745548 9:0.818801 
-1024 1:-0.754763 2:-0.599424 3:-0.511771 4:-0.430115 5:-0.24854 6:-0.993941 7:-0.986499 8:-0.97937 9:-0.96724 
-1024 1:0.155312 2:0.939073 3:0.97052 4:0.981416 5:0.196824 6:0.899746 7:0.953218 8:0.957833 9:0.955085 
-1024 1:0.155312 2:0.939073 3:0.97052 4:0.981416 5:0.196824 6:-0.0231707 7:0.573005 8:0.745548 9:0.818801 
1024 1:0.155312 2:0.939073 3:0.97052 4:0.981416 5:0.196824 6:-0.993941 7:-0.986499 8:-0.97937 9:-0.96724 
-1024 1:-0.48577 2:-0.061069 3:0.128366 4:0.279771 5:0.0117888 6:0.899746 7:0.953218 8:0.957833 9:0.955085 
-1024 1:-0.48577 2:-0.061069 3:0.128366 4:0.279771 5:0.0117888 6:-0.0231707 7:0.573005 8:0.745548 9:0.818801 
-817.86999983364933 1:-0.48577 2:-0.061069 3:0.128366 4:0.279771 5:0.0117888 6:-0.993941 7:-0.986499 8:-0.97937 9:-0.96724 
-1024 1:-0.708764 2:-0.506102 3:-0.397737 4:-0.298842 5:-0.235587 6:0.899746 7:0.953218 8:0.957833 9:0.955085 
-1024 1:-0.708764 2:-0.506102 3:-0.397737 4:-0.298842 5:-0.235587 6:-0.0231707 7:0.573005 8:0.745548 9:0.818801 
1024 1:-0.708764 2:-0.506102 3:-0.397737 4:-0.298842 5:-0.235587 6:-0.993941 7:-0.986499 8:-0.97937 9:-0.96724 
1024 1:-0.832577 2:-0.764699 3:-0.730152 4:-0.694914 5:-0.374505 6:0.899746 7:0.953218 8:0.957833 9:0.955085 
-1024 1:-0.832577 2:-0.764699 3:-0.730152 4:-0.694914 5:-0.374505 6:-0.0231707 7:0.573005 8:0.745548 9:0.818801 
-1024 1:-0.832577 2:-0.764699 3:-0.730152 4:-0.694914 5:-0.374505 6:-0.993941 7:-0.986499 8:-0.97937 9:-0.96724 
1024 1:0.683478 2:0.979752 3:0.991509 4:0.99575 5:-0.500498 6:0.890579 7:0.931605 8:0.941519 9:0.946383 
-1024 1:0.683478 2:0.979752 3:0.991509 4:0.99575 5:-0.500498 6:-0.978428 7:-0.956911 8:-0.932281 9:-0.897343 
1024 1:-0.17808 2:0.436146 3:0.628532 4:0.745749 5:-0.630214 6:0.890579 7:0.931605 8:0.941519 9:0.946383 
1024 1:-0.17808 2:0.436146 3:0.628532 4:0.745749 5:-0.630214 6:-0.0605422 7:0.440063 8:0.724326 9:0.876111 
1024 1:-0.17808 2:0.436146 3:0.628532 4:0.745749 5:-0.630214 6:-0.978428 7:-0.956911 8:-0.932281 9:-0.897343 
1024 1:-0.503501 2:-0.0564568 3:0.172605 4:0.355383 5:-0.69057 6:0.890579 7:0.931605 8:0.941519 9:0.946383 
1024 1:-0.503501 2:-0.0564568 3:0.172605 4:0.355383 5:-0.69057 6:-0.0605422 7:0.440063 8:0.724326 9:0.876111 
-1024 1:-0.503501 2:-0.0564568 3:0.172605 4:0.355383 5:-0.69057 6:-0.978428 7:-0.956911 8:-0.932281 9:-0.897343 
1024 1:-0.784157 2:-0.601438 3:-0.452392 4:-0.285539 5:-0.749488 6:0.890579 7:0.931605 8:0.941519 9:0.946383 
1024 1:-0.784157 2:-0.601438 3:-0.452392 4:-0.285539 5:-0.749488 6:-0.0605422 7:0.440063 8:0.724326 9:0.876111 
1024 1:-0.784157 2:-0.601438 3:-0.452392 4:-0.285539 5:-0.749488 6:-0.978428 7:-0.956911 8:-0.932281 9:-0.897343 
106.72915437285516 1:0.198943 2:0.927292 3:0.967514 4:0.982416 5:-0.580116 6:0.890579 7:0.931605 8:0.941519 9:0.946383 
1024 1:0.198943 2:0.927292 3:0.967514 4:0.982416 5:-0.580116 6:-0.0605422 7:0.440063 8:0.724326 9:0.876111 
-1024 1:0.198943 2:0.927292 3:0.967514 4:0.982416 5:-0.580116 6:-0.978428 7:-0.956911 8:-0.932281 9:-0.897343 
-1024 1:-0.353932 2:0.223636 3:0.446575 4:0.600079 5:-0.66268 6:0.890579 7:0.931605 8:0.941519 9:0.946383 
1024 1:-0.353932 2:0.223636 3:0.446575 4:0.600079 5:-0.66268 6:-0.0605422 7:0.440063 8:0.724326 9:0.876111 
-1024 1:-0.353932 2:0.223636 3:0.446575 4:0.600079 5:-0.66268 6:-0.978428 7:-0.956911 8:-0.932281 9:-0.897343 
1024 1:-0.639914 2:-0.295923 3:-0.0840387 4:0.10913 5:-0.730893 6:0.890579 7:0.931605 8:0.941519 9:0.946383 
-1024 1:-0.639914 2:-0.295923 3:-0.0840387 4:0.10913 5:-0.730893 6:-0.0605422 7:0.440063 8:0.724326 9:0.876111 
-1024 1:-0.639914 2:-0.295923 3:-0.0840387 4:0.10913 5:-0.730893 6:-0.978428 7:-0.956911 8:-0.932281 9:-0.897343 
1024 1:-0.867534 2:-0.783455 3:-0.703778 4:-0.601198 5:-0.796109 6:0.890579 7:0.931605 8:0.941519 9:0.946383 
1024 1:-0.867534 2:-0.783455 3:-0.703778 4:-0.601198 5:-0.796109 6:-0.0605422 7:0.440063 8:0.724326 9:0.876111 
1024 1:-0.867534 2:-0.783455 3:-0.703778 4:-0.601198 5:-0.796109 6:-0.978428 7:-0.956911 8:-0.932281 9:-0.897343 
-1024 1:0.773235 2:0.951128 3:0.970016 4:0.978633 5:-0.318693 6:1 7:1 8:1 9:1 
-1024 1:0.773235 2:0.951128 3:0.970016 4:0.978633 5:-0.318693 6:0.0819543 7:0.609042 8:0.815921 9:0.919655 
-1024 1:0.773235 2:0.951128 3:0.970016 4:0.978633 5:-0.318693 6:-0.848833 7:-0.719355 8:-0.579713 9:-0.34345 
1024 1:-0.283836 2:0.0497167 3:0.25145 4:0.4098 5:-0.406427 6:1 7:1 8:1 9:1 
-1024 1:-0.283836 2:0.0497167 3:0.25145 4:0.4098 5:-0.406427 6:0.0819543 7:0.609042 8:0.815921 9:0.919655 
-1024 1:-0.283836 2:0.0497167 3:0.25145 4:0.4098 5:-0.406427 6:-0.848833 7:-0.719355 8:-0.579713 9:-0.34345 
1024 1:-0.617348 2:-0.46731 3:-0.339483 4:-0.21916 5:-0.511097 6:1 7:1 8:1 9:1 
-1024 1:-0.617348 2:-0.46731 3:-0.339483 4:-0.21916 5:-0.511097 6:0.0819543 7:0.609042 8:0.815921 9:0.919655 
1024 1:-0.617348 2:-0.46731 3:-0.339483 4:-0.21916 5:-0.511097 6:-0.848833 7:-0.719355 8:-0.579713 9:-0.34345 
-1024 1:-0.803571 2:-0.78804 3:-0.752422 4:-0.711923 5:-0.574982 6:1 7:1 8:1 9:1 
1024 1:-0.803571 2:-0.78804 3:-0.752422 4:-0.711923 5:-0.574982 6:0.0819543 7:0.609042 8:0.815921 9:0.919655 
-1024 1:0.529984 2:0.874772 3:0.929359 4:0.954024 5:-0.338882 6:1 7:1 8:1 9:1 
-1024 1:0.529984 2:0.874772 3:0.929359 4:0.954024 5:-0.338882 6:0.0819543 7:0.609042 8:0.815921 9:0.919655 
-1024 1:0.529984 2:0.874772 3:0.929359 4:0.954024 5:-0.338882 6:-0.848833 7:-0.719355 8:-0.579713 9:-0.34345 
-1024 1:-0.433082 2:-0.179969 3:-0.00352025 4:0.152883 5:-0.430899 6:1 7:1 8:1 9:1 
1024 1:-0.433082 2:-0.179969 3:-0.00352025 4:0.152883 5:-0.430899 6:0.0819543 7:0.609042 8:0.815921 9:0.919655 
-1024 1:-0.433082 2:-0.179969 3:-0.00352025 4:0.152883 5:-0.430899 6:-0.848833 7:-0.719355 8:-0.579713 9:-0.34345 
-1024 1:-0.708139 2:-0.626995 3:-0.547421 4:-0.468098 5:-0.555964 6:1 7:1 8:1 9:1 
1024 1:-0.708139 2:-0.626995 3:-0.547421 4:-0.468098 5:-0.555964 6:0.0819543 7:0.609042 8:0.815921 9:0.919655 
-1024 1:-0.708139 2:-0.626995 3:-0.547421 4:-0.468098 5:-0.555964 6:-0.848833 7:-0.719355 8:-0.579713 9:-0.34345 
-1024 1:-0.85433 2:-0.8831 3:-0.890786 4:-0.900757 5:-0.636533 6:1 7:1 8:1 9:1 
-1024 1:-0.85433 2:-0.8831 3:-0.890786 4:-0.900757 5:-0.636533 6:0.0819543 7:0.609042 8:0.815921 9:0.919655 
1024 1:-0.85433 2:-0.8831 3:-0.890786 4:-0.900757 5:-0.636533 6:-0.848833 7:-0.719355 8:-0.579713 9:-0.34345 
1024 1:1 2:1 3:0.999208 4:0.99894 5:-0.455465 6:0.693443 7:0.880989 8:0.874933 9:0.876015 
1024 1:1 2:1 3:0.999208 4:0.99894 5:-0.455465 6:-0.947091 7:-0.607013 8:-0.0860355 9:0.571447 
926.30549629755615 1:1 2:1 3:0.999208 4:0.99894 5:-0.455465 6:-1 7:-1 8:-1 9:-1 
1024 1:0.227703 2:0.474397 3:0.61923 4:0.720968 5:-0.480797 6:0.693443 7:0.880989 8:0.874933 9:0.876015 
1024 1:0.227703 2:0.474397 3:0.61923 4:0.720968 5:-0.480797 6:-0.947091 7:-0.607013 8:-0.0860355 9:0.571447 
1024 1:0.227703 2:0.474397 3:0.61923 4:0.720968 5:-0.480797 6:-1 7:-1 8:-1 9:-1 
1024 1:-0.14369 2:0.0256848 3:0.177679 4:0.313555 5:-0.50933 6:0.693443 7:0.880989 8:0.874933 9:0.876015 
-1024 1:-0.14369 2:0.0256848 3:0.177679 4:0.313555 5:-0.50933 6:-0.947091 7:-0.607013 8:-0.0860355 9:0.571447 
1024 1:-0.14369 2:0.0256848 3:0.177679 4:0.313555 5:-0.50933 6:-1 7:-1 8:-1 9:-1 
-1024 1:-0.465845 2:-0.400141 3:-0.303978 4:-0.199323 5:-0.51145 6:0.693443 7:0.880989 8:0.874933 9:0.876015 
1024 1:-0.465845 2:-0.400141 3:-0.303978 4:-0.199323 5:-0.51145 6:-0.947091 7:-0.607013 8:-0.0860355 9:0.571447 
1024 1:-0.465845 2:-0.400141 3:-0.303978 4:-0.199323 5:-0.51145 6:-1 7:-1 8:-1 9:-1 
1024 1:0.803809 2:0.963782 3:0.980452 4:0.987667 5:-0.461569 6:0.693443 7:0.880989 8:0.874933 9:0.876015 
591.31973916536253 1:0.803809 2:0.963782 3:0.980452 4:0.987667 5:-0.461569 6:-0.947091 7:-0.607013 8:-0.0860355 9:0.571447 
1024 1:0.803809 2:0.963782 3:0.980452 4:0.987667 5:-0.461569 6:-1 7:-1 8:-1 9:-1 
1024 1:0.0511569 2:0.272049 3:0.430668 4:0.557172 5:-0.492619 6:0.693443 7:0.880989 8:0.874933 9:0.876015 
1024 1:0.0511569 2:0.272049 3:0.430668 4:0.557172 5:-0.492619 6:-0.947091 7:-0.607013 8:-0.0860355 9:0.571447 
1024 1:0.0511569 2:0.272049 3:0.430668 4:0.557172 5:-0.492619 6:-1 7:-1 8:-1 9:-1 
-1024 1:-0.294114 2:-0.182122 3:-0.0571844 4:0.0682649 5:-0.536512 6:0.693443 7:0.880989 8:0.874933 9:0.876015 
-1024 1:-0.294114 2:-0.182122 3:-0.0571844 4:0.0682649 5:-0.536512 6:-0.947091 7:-0.607013 8:-0.0860355 9:0.571447 
100.14941176214022 1:-0.294114 2:-0.182122 3:-0.0571844 4:0.0682649 5:-0.536512 6:-1 7:-1 8:-1 9:-1 
1017.302603241528 1:-0.567798 2:-0.556701 3:-0.508015 4:-0.449634 5:-0.550224 6:0.693443 7:0.880989 8:0.874933 9:0.876015 
-900.26102380960356 1:-0.567798 2:-0.556701 3:-0.508015 4:-0.449634 5:-0.550224 6:-0.947091 7:-0.607013 8:-0.0860355 9:0.571447 
-1024 1:-0.567798 2:-0.556701 3:-0.508015 4:-0.449634 5:-0.550224 6:-1 7:-1 8:-1 9:-1 
1024 1:0.603637 2:0.961496 3:0.983338 4:0.991583 5:-0.905103 6:0.92951 7:0.986689 8:0.989869 9:0.99022 
11.044862388463343 1:0.603637 2:0.961496 3:0.983338 4:0.991583 5:-0.905103 6:-0.529318 7:0.00320219 8:0.554811 9:0.864328 
-1020.1132357550817 1:0.603637 2:0.961496 3:0.983338 4:0.991583 5:-0.905103 6:-0.862924 7:-0.684242 8:-0.466627 9:-0.29305 
1024 1:-0.0738318 2:0.507425 3:0.67316 4:0.769328 5:-0.987164 6:0.92951 7:0.986689 8:0.989869 9:0.99022 
-1024 1:-0.0738318 2:0.507425 3:0.67316 4:0.769328 5:-0.987164 6:-0.529318 7:0.00320219 8:0.554811 9:0.864328 
1024 1:-0.0738318 2:0.507425 3:0.67316 4:0.769328 5:-0.987164 6:-0.862924 7:-0.684242 8:-0.466627 9:-0.29305 
203.13572381613417 1:-0.358771 2:0.120182 3:0.318826 4:0.456148 5:-0.991653 6:0.92951 7:0.986689 8:0.989869 9:0.99022 
1024 1:-0.358771 2:0.120182 3:0.318826 4:0.456148 5:-0.991653 6:-0.529318 7:0.00320219 8:0.554811 9:0.864328 
1024 1:-0.358771 2:0.120182 3:0.318826 4:0.456148 5:-0.991653 6:-0.862924 7:-0.684242 8:-0.466627 9:-0.29305 
1024 1:-0.652701 2:-0.379489 3:-0.22817 4:-0.0992419 5:-0.993017 6:0.92951 7:0.986689 8:0.989869 9:0.99022 
-723.91387892700754 1:-0.652701 2:-0.379489 3:-0.22817 4:-0.0992419 5:-0.993017 6:-0.529318 7:0.00320219 8:0.554811 9:0.864328 
1024 1:-0.652701 2:-0.379489 3:-0.22817 4:-0.0992419 5:-0.993017 6:-0.862924 7:-0.684242 8:-0.466627 9:-0.29305 
1024 1:0.21979 2:0.918664 3:0.962143 4:0.979094 5:-0.958212 6:0.92951 7:0.986689 8:0.989869 9:0.99022 
-1024 1:0.21979 2:0.918664 3:0.962143 4:0.979094 5:-0.958212 6:-0.529318 7:0.00320219 8:0.554811 9:0.864328 
-1024 1:0.21979 2:0.918664 3:0.962143 4:0.979094 5:-0.958212 6:-0.862924 7:-0.684242 8:-0.466627 9:-0.29305 
-1024 1:-0.237781 2:0.364407 3:0.552744 4:0.671306 5:-0.990461 6:0.92951 7:0.986689 8:0.989869 9:0.99022 
1024 1:-0.237781 2:0.364407 3:0.552744 4:0.671306 5:-0.990461 6:-0.529318 7:0.00320219 8:0.554811 9:0.864328 
-1024 1:-0.477809 2:-0.04259 3:0.151811 4:0.299735 5:-0.994973 6:0.92951 7:0.986689 8:0.989869 9:0.99022 
-1024 1:-0.477809 2:-0.04259 3:0.151811 4:0.299735 5:-0.994973 6:-0.529318 7:0.00320219 8:0.554811 9:0.864328 
1024 1:-0.477809 2:-0.04259 3:0.151811 4:0.299735 5:-0.994973 6:-0.862924 7:-0.684242 8:-0.466627 9:-0.29305 
-745.50927931116428 1:-0.727236 2:-0.516083 3:-0.392491 4:-0.278861 5:-1 6:0.92951 7:0.986689 8:0.989869 9:0.99022 
-1024 1:-0.727236 2:-0.516083 3:-0.392491 4:-0.278861 5:-1 6:-0.529318 7:0.00320219 8:0.554811 9:0.864328 
-733.83742317747692 1:-0.727236 2:-0.516083 3:-0.392491 4:-0.278861 5:-1 6:-0.862924 7:-0.684242 8:-0.466627 9:-0.29305 
-1024 1:0.826003 2:0.971011 3:0.984208 4:0.990014 5:0.450014 6:0.992265 7:0.994534 8:0.997181 9:0.998297 
-1024 1:0.826003 2:0.971011 3:0.984208 4:0.990014 5:0.450014 6:-0.400556 7:0.393658 8:0.751196 9:0.879297 
-1024 1:0.826003 2:0.971011 3:0.984208 4:0.990014 5:0.450014 6:-0.887081 7:-0.681875 8:-0.513966 9:-0.334633 
1024 1:-0.344132 2:0.0446062 3:0.272104 4:0.44566 5:0.270295 6:0.992265 7:0.994534 8:0.997181 9:0.998297 
1024 1:-0.344132 2:0.0446062 3:0.272104 4:0.44566 5:0.270295 6:-0.400556 7:0.393658 8:0.751196 9:0.879297 
-1024 1:-0.344132 2:0.0446062 3:0.272104 4:0.44566 5:0.270295 6:-0.887081 7:-0.681875 8:-0.513966 9:-0.334633 
1024 1:-0.694184 2:-0.520609 3:-0.357242 4:-0.185805 5:0.0502344 6:0.992265 7:0.994534 8:0.997181 9:0.998297 
1024 1:-0.694184 2:-0.520609 3:-0.357242 4:-0.185805 5:0.0502344 6:-0.400556 7:0.393658 8:0.751196 9:0.879297 
1024 1:-0.694184 2:-0.520609 3:-0.357242 4:-0.185805 5:0.0502344 6:-0.887081 7:-0.681875 8:-0.513966 9:-0.334633 
1024 1:-0.831364 2:-0.757873 3:-0.655264 4:-0.529053 5:-0.0154456 6:0.992265 7:0.994534 8:0.997181 9:0.998297 
-1024 1:-0.831364 2:-0.757873 3:-0.655264 4:-0.529053 5:-0.0154456 6:-0.400556 7:0.393658 8:0.751196 9:0.879297 
1024 1:-0.831364 2:-0.757873 3:-0.655264 4:-0.529053 5:-0.0154456 6:-0.887081 7:-0.681875 8:-0.513966 9:-0.334633 
-1024 1:0.531462 2:0.902473 3:0.949684 4:0.969643 5:0.415495 6:0.992265 7:0.994534 8:0.997181 9:0.998297 
-1024 1:0.531462 2:0.902473 3:0.949684 4:0.969643 5:0.415495 6:-0.400556 7:0.393658 8:0.751196 9:0.879297 
1024 1:0.531462 2:0.902473 3:0.949684 4:0.969643 5:0.415495 6:-0.887081 7:-0.681875 8:-0.513966 9:-0.334633 
1024 1:-0.521381 2:-0.230328 3:-0.0191377 4:0.169025 5:0.199641 6:0.992265 7:0.994534 8:0.997181 9:0.998297 
1024 1:-0.521381 2:-0.230328 3:-0.0191377 4:0.169025 5:0.199641 6:-0.400556 7:0.393658 8:0.751196 9:0.879297 
-703.77749182646892 1:-0.521381 2:-0.230328 3:-0.0191377 4:0.169025 5:0.199641 6:-0.887081 7:-0.681875 8:-0.513966 9:-0.334633 
1024 1:-0.801094 2:-0.719697 3:-0.621293 4:-0.502954 5:-0.11806 6:0.992265 7:0.994534 8:0.997181 9:0.998297 
1024 1:-0.801094 2:-0.719697 3:-0.621293 4:-0.502954 5:-0.11806 6:-0.400556 7:0.393658 8:0.751196 9:0.879297 
1024 1:-0.801094 2:-0.719697 3:-0.621293 4:-0.502954 5:-0.11806 6:-0.887081 7:-0.681875 8:-0.513966 9:-0.334633 
171.15815533874826 1:-0.906353 2:-0.910841 3:-0.877806 4:-0.824023 5:-0.194819 6:0.992265 7:0.994534 8:0.997181 9:0.998297 
1024 1:-0.906353 2:-0.910841 3:-0.877806 4:-0.824023 5:-0.194819 6:-0.400556 7:0.393658 8:0.751196 9:0.879297 
-1024 1:-0.906353 2:-0.910841 3:-0.877806 4:-0.824023 5:-0.194819 6:-0.887081 7:-0.681875 8:-0.513966 9:-0.334633 
-1024 1:0.424843 2:0.968096 3:0.985828 4:0.990626 5:-0.345343 6:0.884948 7:0.948529 8:0.958055 9:0.962684 
1024 1:0.424843 2:0.968096 3:0.985828 4:0.990626 5:-0.345343 6:0.145308 7:0.560308 8:0.692802 9:0.755692 
1024 1:0.424843 2:0.968096 3:0.985828 4:0.990626 5:-0.345343 6:-0.837462 7:-0.740927 8:-0.675882 9:-0.609615 
-1024 1:-0.482761 2:0.36586 3:0.593271 4:0.721585 5:-0.573287 6:0.884948 7:0.948529 8:0.958055 9:0.962684 
1024 1:-0.482761 2:0.36586 3:0.593271 4:0.721585 5:-0.573287 6:0.145308 7:0.560308 8:0.692802 9:0.755692 
1024 1:-0.482761 2:0.36586 3:0.593271 4:0.721585 5:-0.573287 6:-0.837462 7:-0.740927 8:-0.675882 9:-0.609615 
-1024 1:-0.710803 2:-0.154009 3:0.0975297 4:0.293431 5:-0.645488 6:0.884948 7:0.948529 8:0.958055 9:0.962684 
1024 1:-0.710803 2:-0.154009 3:0.0975297 4:0.293431 5:-0.645488 6:0.145308 7:0.560308 8:0.692802 9:0.755692 
-1024 1:-0.924167 2:-0.741894 3:-0.62381 4:-0.488111 5:-0.799108 6:0.145308 7:0.560308 8:0.692802 9:0.755692 
-705.69159075622201 1:-0.924167 2:-0.741894 3:-0.62381 4:-0.488111 5:-0.799108 6:-0.837462 7:-0.740927 8:-0.675882 9:-0.609615 
-1024 1:-0.148962 2:0.908464 3:0.9607 4:0.978768 5:-0.479757 6:0.884948 7:0.948529 8:0.958055 9:0.962684 
-1024 1:-0.148962 2:0.908464 3:0.9607 4:0.978768 5:-0.479757 6:0.145308 7:0.560308 8:0.692802 9:0.755692 
1024 1:-0.148962 2:0.908464 3:0.9607 4:0.978768 5:-0.479757 6:-0.837462 7:-0.740927 8:-0.675882 9:-0.609615 
-1024 1:-0.591004 2:0.167394 3:0.424232 4:0.590973 5:-0.613683 6:0.884948 7:0.948529 8:0.958055 9:0.962684 
-1024 1:-0.591004 2:0.167394 3:0.424232 4:0.590973 5:-0.613683 6:0.145308 7:0.560308 8:0.692802 9:0.755692 
1024 1:-0.591004 2:0.167394 3:0.424232 4:0.590973 5:-0.613683 6:-0.837462 7:-0.740927 8:-0.675882 9:-0.609615 
-1024 1:-0.789667 2:-0.361839 3:-0.139748 4:0.0615578 5:-0.698367 6:0.884948 7:0.948529 8:0.958055 9:0.962684 
-1024 1:-0.789667 2:-0.361839 3:-0.139748 4:0.0615578 5:-0.698367 6:0.145308 7:0.560308 8:0.692802 9:0.755692 
1024 1:-0.789667 2:-0.361839 3:-0.139748 4:0.0615578 5:-0.698367 6:-0.837462 7:-0.740927 8:-0.675882 9:-0.609615 
1024 1:-0.968541 2:-0.880453 3:-0.823842 4:-0.748758 5:-0.855602 6:0.884948 7:0.948529 8:0.958055 9:0.962684 
1024 1:-0.968541 2:-0.880453 3:-0.823842 4:-0.748758 5:-0.855602 6:0.145308 7:0.560308 8:0.692802 9:0.755692 
-1024 1:-0.968541 2:-0.880453 3:-0.823842 4:-0.748758 5:-0.855602 6:-0.837462 7:-0.740927 8:-0.675882 9:-0.609615 
